digraph Tree {
node [shape=box] ;
0 [label="X[6] <= 1.418\nentropy = 0.502\nsamples = 1843\nvalue = [1639, 204]"] ;
1 [label="X[3] <= 0.5\nentropy = 0.376\nsamples = 1689\nvalue = [1566, 123]"] ;
0 -> 1 [labeldistance=2.5, labelangle=45, headlabel="True"] ;
2 [label="X[8] <= 0.538\nentropy = 0.27\nsamples = 1538\nvalue = [1467, 71]"] ;
1 -> 2 ;
3 [label="X[11] <= -1.458\nentropy = 0.167\nsamples = 1176\nvalue = [1147, 29]"] ;
2 -> 3 ;
4 [label="entropy = 0.0\nsamples = 92\nvalue = [92, 0]"] ;
3 -> 4 ;
5 [label="X[9] <= -1.451\nentropy = 0.178\nsamples = 1084\nvalue = [1055, 29]"] ;
3 -> 5 ;
6 [label="entropy = 0.0\nsamples = 1\nvalue = [0, 1]"] ;
5 -> 6 ;
7 [label="X[1] <= -1.325\nentropy = 0.173\nsamples = 1083\nvalue = [1055, 28]"] ;
5 -> 7 ;
8 [label="entropy = 0.0\nsamples = 101\nvalue = [101, 0]"] ;
7 -> 8 ;
9 [label="X[1] <= 1.515\nentropy = 0.187\nsamples = 982\nvalue = [954, 28]"] ;
7 -> 9 ;
10 [label="X[1] <= 1.182\nentropy = 0.2\nsamples = 900\nvalue = [872, 28]"] ;
9 -> 10 ;
11 [label="X[7] <= -0.835\nentropy = 0.178\nsamples = 857\nvalue = [834, 23]"] ;
10 -> 11 ;
12 [label="X[10] <= -1.399\nentropy = 0.053\nsamples = 168\nvalue = [167, 1]"] ;
11 -> 12 ;
13 [label="X[0] <= 8.0\nentropy = 0.439\nsamples = 11\nvalue = [10, 1]"] ;
12 -> 13 ;
14 [label="entropy = 0.0\nsamples = 1\nvalue = [0, 1]"] ;
13 -> 14 ;
15 [label="entropy = 0.0\nsamples = 10\nvalue = [10, 0]"] ;
13 -> 15 ;
16 [label="entropy = 0.0\nsamples = 157\nvalue = [157, 0]"] ;
12 -> 16 ;
17 [label="X[10] <= 0.241\nentropy = 0.204\nsamples = 689\nvalue = [667, 22]"] ;
11 -> 17 ;
18 [label="X[1] <= -0.506\nentropy = 0.14\nsamples = 406\nvalue = [398, 8]"] ;
17 -> 18 ;
19 [label="X[0] <= 42.5\nentropy = 0.29\nsamples = 118\nvalue = [112, 6]"] ;
18 -> 19 ;
20 [label="X[0] <= 7.5\nentropy = 0.152\nsamples = 91\nvalue = [89, 2]"] ;
19 -> 20 ;
21 [label="X[7] <= 2.361\nentropy = 0.503\nsamples = 18\nvalue = [16, 2]"] ;
20 -> 21 ;
22 [label="X[11] <= -0.438\nentropy = 0.323\nsamples = 17\nvalue = [16, 1]"] ;
21 -> 22 ;
23 [label="X[9] <= -0.608\nentropy = 0.811\nsamples = 4\nvalue = [3, 1]"] ;
22 -> 23 ;
24 [label="entropy = 0.0\nsamples = 3\nvalue = [3, 0]"] ;
23 -> 24 ;
25 [label="entropy = 0.0\nsamples = 1\nvalue = [0, 1]"] ;
23 -> 25 ;
26 [label="entropy = 0.0\nsamples = 13\nvalue = [13, 0]"] ;
22 -> 26 ;
27 [label="entropy = 0.0\nsamples = 1\nvalue = [0, 1]"] ;
21 -> 27 ;
28 [label="entropy = 0.0\nsamples = 73\nvalue = [73, 0]"] ;
20 -> 28 ;
29 [label="X[16] <= -0.88\nentropy = 0.605\nsamples = 27\nvalue = [23, 4]"] ;
19 -> 29 ;
30 [label="X[6] <= -0.705\nentropy = 0.985\nsamples = 7\nvalue = [4, 3]"] ;
29 -> 30 ;
31 [label="entropy = 0.0\nsamples = 3\nvalue = [3, 0]"] ;
30 -> 31 ;
32 [label="X[6] <= 0.11\nentropy = 0.811\nsamples = 4\nvalue = [1, 3]"] ;
30 -> 32 ;
33 [label="entropy = 0.0\nsamples = 3\nvalue = [0, 3]"] ;
32 -> 33 ;
34 [label="entropy = 0.0\nsamples = 1\nvalue = [1, 0]"] ;
32 -> 34 ;
35 [label="X[6] <= 0.134\nentropy = 0.286\nsamples = 20\nvalue = [19, 1]"] ;
29 -> 35 ;
36 [label="entropy = 0.0\nsamples = 18\nvalue = [18, 0]"] ;
35 -> 36 ;
37 [label="X[14] <= 0.169\nentropy = 1.0\nsamples = 2\nvalue = [1, 1]"] ;
35 -> 37 ;
38 [label="entropy = 0.0\nsamples = 1\nvalue = [0, 1]"] ;
37 -> 38 ;
39 [label="entropy = 0.0\nsamples = 1\nvalue = [1, 0]"] ;
37 -> 39 ;
40 [label="X[15] <= 0.749\nentropy = 0.06\nsamples = 288\nvalue = [286, 2]"] ;
18 -> 40 ;
41 [label="entropy = 0.0\nsamples = 211\nvalue = [211, 0]"] ;
40 -> 41 ;
42 [label="X[7] <= -0.783\nentropy = 0.174\nsamples = 77\nvalue = [75, 2]"] ;
40 -> 42 ;
43 [label="X[8] <= -0.404\nentropy = 1.0\nsamples = 2\nvalue = [1, 1]"] ;
42 -> 43 ;
44 [label="entropy = 0.0\nsamples = 1\nvalue = [1, 0]"] ;
43 -> 44 ;
45 [label="entropy = 0.0\nsamples = 1\nvalue = [0, 1]"] ;
43 -> 45 ;
46 [label="X[16] <= 2.025\nentropy = 0.102\nsamples = 75\nvalue = [74, 1]"] ;
42 -> 46 ;
47 [label="entropy = 0.0\nsamples = 68\nvalue = [68, 0]"] ;
46 -> 47 ;
48 [label="X[12] <= 0.153\nentropy = 0.592\nsamples = 7\nvalue = [6, 1]"] ;
46 -> 48 ;
49 [label="entropy = 0.0\nsamples = 6\nvalue = [6, 0]"] ;
48 -> 49 ;
50 [label="entropy = 0.0\nsamples = 1\nvalue = [0, 1]"] ;
48 -> 50 ;
51 [label="X[0] <= 12.5\nentropy = 0.284\nsamples = 283\nvalue = [269, 14]"] ;
17 -> 51 ;
52 [label="entropy = 0.0\nsamples = 54\nvalue = [54, 0]"] ;
51 -> 52 ;
53 [label="X[0] <= 42.5\nentropy = 0.332\nsamples = 229\nvalue = [215, 14]"] ;
51 -> 53 ;
54 [label="X[10] <= 0.823\nentropy = 0.384\nsamples = 187\nvalue = [173, 14]"] ;
53 -> 54 ;
55 [label="X[1] <= -0.237\nentropy = 0.521\nsamples = 94\nvalue = [83, 11]"] ;
54 -> 55 ;
56 [label="X[11] <= -1.353\nentropy = 0.183\nsamples = 36\nvalue = [35, 1]"] ;
55 -> 56 ;
57 [label="entropy = 0.0\nsamples = 1\nvalue = [0, 1]"] ;
56 -> 57 ;
58 [label="entropy = 0.0\nsamples = 35\nvalue = [35, 0]"] ;
56 -> 58 ;
59 [label="X[11] <= -0.682\nentropy = 0.663\nsamples = 58\nvalue = [48, 10]"] ;
55 -> 59 ;
60 [label="entropy = 0.0\nsamples = 12\nvalue = [12, 0]"] ;
59 -> 60 ;
61 [label="X[9] <= 0.053\nentropy = 0.755\nsamples = 46\nvalue = [36, 10]"] ;
59 -> 61 ;
62 [label="X[9] <= -0.337\nentropy = 0.996\nsamples = 13\nvalue = [7, 6]"] ;
61 -> 62 ;
63 [label="X[1] <= 0.453\nentropy = 0.764\nsamples = 9\nvalue = [7, 2]"] ;
62 -> 63 ;
64 [label="entropy = 0.0\nsamples = 5\nvalue = [5, 0]"] ;
63 -> 64 ;
65 [label="X[8] <= -0.771\nentropy = 1.0\nsamples = 4\nvalue = [2, 2]"] ;
63 -> 65 ;
66 [label="entropy = 0.0\nsamples = 2\nvalue = [0, 2]"] ;
65 -> 66 ;
67 [label="entropy = 0.0\nsamples = 2\nvalue = [2, 0]"] ;
65 -> 67 ;
68 [label="entropy = 0.0\nsamples = 4\nvalue = [0, 4]"] ;
62 -> 68 ;
69 [label="X[5] <= 1.854\nentropy = 0.533\nsamples = 33\nvalue = [29, 4]"] ;
61 -> 69 ;
70 [label="X[16] <= 0.572\nentropy = 0.353\nsamples = 30\nvalue = [28, 2]"] ;
69 -> 70 ;
71 [label="entropy = 0.0\nsamples = 22\nvalue = [22, 0]"] ;
70 -> 71 ;
72 [label="X[7] <= 0.672\nentropy = 0.811\nsamples = 8\nvalue = [6, 2]"] ;
70 -> 72 ;
73 [label="entropy = 0.0\nsamples = 5\nvalue = [5, 0]"] ;
72 -> 73 ;
74 [label="X[10] <= 0.294\nentropy = 0.918\nsamples = 3\nvalue = [1, 2]"] ;
72 -> 74 ;
75 [label="entropy = 0.0\nsamples = 1\nvalue = [1, 0]"] ;
74 -> 75 ;
76 [label="entropy = 0.0\nsamples = 2\nvalue = [0, 2]"] ;
74 -> 76 ;
77 [label="X[11] <= 0.678\nentropy = 0.918\nsamples = 3\nvalue = [1, 2]"] ;
69 -> 77 ;
78 [label="entropy = 0.0\nsamples = 1\nvalue = [1, 0]"] ;
77 -> 78 ;
79 [label="entropy = 0.0\nsamples = 2\nvalue = [0, 2]"] ;
77 -> 79 ;
80 [label="X[10] <= 1.352\nentropy = 0.206\nsamples = 93\nvalue = [90, 3]"] ;
54 -> 80 ;
81 [label="entropy = 0.0\nsamples = 51\nvalue = [51, 0]"] ;
80 -> 81 ;
82 [label="X[1] <= -1.274\nentropy = 0.371\nsamples = 42\nvalue = [39, 3]"] ;
80 -> 82 ;
83 [label="entropy = 0.0\nsamples = 1\nvalue = [0, 1]"] ;
82 -> 83 ;
84 [label="X[8] <= -1.356\nentropy = 0.281\nsamples = 41\nvalue = [39, 2]"] ;
82 -> 84 ;
85 [label="X[13] <= -0.047\nentropy = 0.863\nsamples = 7\nvalue = [5, 2]"] ;
84 -> 85 ;
86 [label="entropy = 0.0\nsamples = 4\nvalue = [4, 0]"] ;
85 -> 86 ;
87 [label="X[14] <= 0.692\nentropy = 0.918\nsamples = 3\nvalue = [1, 2]"] ;
85 -> 87 ;
88 [label="entropy = 0.0\nsamples = 2\nvalue = [0, 2]"] ;
87 -> 88 ;
89 [label="entropy = 0.0\nsamples = 1\nvalue = [1, 0]"] ;
87 -> 89 ;
90 [label="entropy = 0.0\nsamples = 34\nvalue = [34, 0]"] ;
84 -> 90 ;
91 [label="entropy = 0.0\nsamples = 42\nvalue = [42, 0]"] ;
53 -> 91 ;
92 [label="X[9] <= -1.172\nentropy = 0.519\nsamples = 43\nvalue = [38, 5]"] ;
10 -> 92 ;
93 [label="entropy = 0.0\nsamples = 2\nvalue = [0, 2]"] ;
92 -> 93 ;
94 [label="X[8] <= 0.039\nentropy = 0.378\nsamples = 41\nvalue = [38, 3]"] ;
92 -> 94 ;
95 [label="entropy = 0.0\nsamples = 27\nvalue = [27, 0]"] ;
94 -> 95 ;
96 [label="X[6] <= 0.142\nentropy = 0.75\nsamples = 14\nvalue = [11, 3]"] ;
94 -> 96 ;
97 [label="X[13] <= 0.979\nentropy = 0.918\nsamples = 3\nvalue = [1, 2]"] ;
96 -> 97 ;
98 [label="entropy = 0.0\nsamples = 2\nvalue = [0, 2]"] ;
97 -> 98 ;
99 [label="entropy = 0.0\nsamples = 1\nvalue = [1, 0]"] ;
97 -> 99 ;
100 [label="X[8] <= 0.433\nentropy = 0.439\nsamples = 11\nvalue = [10, 1]"] ;
96 -> 100 ;
101 [label="entropy = 0.0\nsamples = 10\nvalue = [10, 0]"] ;
100 -> 101 ;
102 [label="entropy = 0.0\nsamples = 1\nvalue = [0, 1]"] ;
100 -> 102 ;
103 [label="entropy = 0.0\nsamples = 82\nvalue = [82, 0]"] ;
9 -> 103 ;
104 [label="X[9] <= 0.841\nentropy = 0.518\nsamples = 362\nvalue = [320, 42]"] ;
2 -> 104 ;
105 [label="X[6] <= 0.54\nentropy = 0.277\nsamples = 293\nvalue = [279, 14]"] ;
104 -> 105 ;
106 [label="entropy = 0.0\nsamples = 1\nvalue = [0, 1]"] ;
105 -> 106 ;
107 [label="X[15] <= 0.51\nentropy = 0.263\nsamples = 292\nvalue = [279, 13]"] ;
105 -> 107 ;
108 [label="X[17] <= -2.001\nentropy = 0.338\nsamples = 207\nvalue = [194, 13]"] ;
107 -> 108 ;
109 [label="X[1] <= 0.466\nentropy = 0.918\nsamples = 6\nvalue = [4, 2]"] ;
108 -> 109 ;
110 [label="entropy = 0.0\nsamples = 4\nvalue = [4, 0]"] ;
109 -> 110 ;
111 [label="entropy = 0.0\nsamples = 2\nvalue = [0, 2]"] ;
109 -> 111 ;
112 [label="X[1] <= 0.773\nentropy = 0.306\nsamples = 201\nvalue = [190, 11]"] ;
108 -> 112 ;
113 [label="X[7] <= 0.308\nentropy = 0.368\nsamples = 156\nvalue = [145, 11]"] ;
112 -> 113 ;
114 [label="X[0] <= 19.5\nentropy = 0.475\nsamples = 98\nvalue = [88, 10]"] ;
113 -> 114 ;
115 [label="X[14] <= 1.217\nentropy = 0.746\nsamples = 33\nvalue = [26, 7]"] ;
114 -> 115 ;
116 [label="X[9] <= -1.336\nentropy = 0.637\nsamples = 31\nvalue = [26, 5]"] ;
115 -> 116 ;
117 [label="X[0] <= 3.0\nentropy = 0.811\nsamples = 4\nvalue = [1, 3]"] ;
116 -> 117 ;
118 [label="entropy = 0.0\nsamples = 1\nvalue = [1, 0]"] ;
117 -> 118 ;
119 [label="entropy = 0.0\nsamples = 3\nvalue = [0, 3]"] ;
117 -> 119 ;
120 [label="X[13] <= 1.583\nentropy = 0.381\nsamples = 27\nvalue = [25, 2]"] ;
116 -> 120 ;
121 [label="entropy = 0.0\nsamples = 24\nvalue = [24, 0]"] ;
120 -> 121 ;
122 [label="X[14] <= 1.031\nentropy = 0.918\nsamples = 3\nvalue = [1, 2]"] ;
120 -> 122 ;
123 [label="entropy = 0.0\nsamples = 2\nvalue = [0, 2]"] ;
122 -> 123 ;
124 [label="entropy = 0.0\nsamples = 1\nvalue = [1, 0]"] ;
122 -> 124 ;
125 [label="entropy = 0.0\nsamples = 2\nvalue = [0, 2]"] ;
115 -> 125 ;
126 [label="X[17] <= 0.051\nentropy = 0.27\nsamples = 65\nvalue = [62, 3]"] ;
114 -> 126 ;
127 [label="entropy = 0.0\nsamples = 51\nvalue = [51, 0]"] ;
126 -> 127 ;
128 [label="X[9] <= -0.395\nentropy = 0.75\nsamples = 14\nvalue = [11, 3]"] ;
126 -> 128 ;
129 [label="entropy = 0.0\nsamples = 8\nvalue = [8, 0]"] ;
128 -> 129 ;
130 [label="X[11] <= -0.189\nentropy = 1.0\nsamples = 6\nvalue = [3, 3]"] ;
128 -> 130 ;
131 [label="entropy = 0.0\nsamples = 2\nvalue = [0, 2]"] ;
130 -> 131 ;
132 [label="X[16] <= 0.33\nentropy = 0.811\nsamples = 4\nvalue = [3, 1]"] ;
130 -> 132 ;
133 [label="entropy = 0.0\nsamples = 3\nvalue = [3, 0]"] ;
132 -> 133 ;
134 [label="entropy = 0.0\nsamples = 1\nvalue = [0, 1]"] ;
132 -> 134 ;
135 [label="X[5] <= 2.623\nentropy = 0.126\nsamples = 58\nvalue = [57, 1]"] ;
113 -> 135 ;
136 [label="entropy = 0.0\nsamples = 57\nvalue = [57, 0]"] ;
135 -> 136 ;
137 [label="entropy = 0.0\nsamples = 1\nvalue = [0, 1]"] ;
135 -> 137 ;
138 [label="entropy = 0.0\nsamples = 45\nvalue = [45, 0]"] ;
112 -> 138 ;
139 [label="entropy = 0.0\nsamples = 85\nvalue = [85, 0]"] ;
107 -> 139 ;
140 [label="X[5] <= -0.145\nentropy = 0.974\nsamples = 69\nvalue = [41, 28]"] ;
104 -> 140 ;
141 [label="X[8] <= 1.032\nentropy = 0.973\nsamples = 47\nvalue = [19, 28]"] ;
140 -> 141 ;
142 [label="X[14] <= -0.329\nentropy = 0.989\nsamples = 32\nvalue = [18, 14]"] ;
141 -> 142 ;
143 [label="entropy = 0.0\nsamples = 11\nvalue = [11, 0]"] ;
142 -> 143 ;
144 [label="X[9] <= 1.575\nentropy = 0.918\nsamples = 21\nvalue = [7, 14]"] ;
142 -> 144 ;
145 [label="X[18] <= -0.808\nentropy = 0.946\nsamples = 11\nvalue = [7, 4]"] ;
144 -> 145 ;
146 [label="entropy = 0.0\nsamples = 7\nvalue = [7, 0]"] ;
145 -> 146 ;
147 [label="entropy = 0.0\nsamples = 4\nvalue = [0, 4]"] ;
145 -> 147 ;
148 [label="entropy = 0.0\nsamples = 10\nvalue = [0, 10]"] ;
144 -> 148 ;
149 [label="X[13] <= 1.505\nentropy = 0.353\nsamples = 15\nvalue = [1, 14]"] ;
141 -> 149 ;
150 [label="entropy = 0.0\nsamples = 14\nvalue = [0, 14]"] ;
149 -> 150 ;
151 [label="entropy = 0.0\nsamples = 1\nvalue = [1, 0]"] ;
149 -> 151 ;
152 [label="entropy = 0.0\nsamples = 22\nvalue = [22, 0]"] ;
140 -> 152 ;
153 [label="X[15] <= 1.048\nentropy = 0.929\nsamples = 151\nvalue = [99, 52]"] ;
1 -> 153 ;
154 [label="X[16] <= -0.88\nentropy = 0.684\nsamples = 121\nvalue = [99, 22]"] ;
153 -> 154 ;
155 [label="entropy = 0.0\nsamples = 20\nvalue = [0, 20]"] ;
154 -> 155 ;
156 [label="X[9] <= 1.505\nentropy = 0.14\nsamples = 101\nvalue = [99, 2]"] ;
154 -> 156 ;
157 [label="entropy = 0.0\nsamples = 90\nvalue = [90, 0]"] ;
156 -> 157 ;
158 [label="X[11] <= 1.733\nentropy = 0.684\nsamples = 11\nvalue = [9, 2]"] ;
156 -> 158 ;
159 [label="X[7] <= -1.406\nentropy = 0.918\nsamples = 3\nvalue = [1, 2]"] ;
158 -> 159 ;
160 [label="entropy = 0.0\nsamples = 1\nvalue = [1, 0]"] ;
159 -> 160 ;
161 [label="entropy = 0.0\nsamples = 2\nvalue = [0, 2]"] ;
159 -> 161 ;
162 [label="entropy = 0.0\nsamples = 8\nvalue = [8, 0]"] ;
158 -> 162 ;
163 [label="entropy = 0.0\nsamples = 30\nvalue = [0, 30]"] ;
153 -> 163 ;
164 [label="X[5] <= -0.068\nentropy = 0.998\nsamples = 154\nvalue = [73, 81]"] ;
0 -> 164 [labeldistance=2.5, labelangle=-45, headlabel="False"] ;
165 [label="X[9] <= -0.02\nentropy = 0.929\nsamples = 116\nvalue = [40, 76]"] ;
164 -> 165 ;
166 [label="X[12] <= 0.175\nentropy = 0.925\nsamples = 50\nvalue = [33, 17]"] ;
165 -> 166 ;
167 [label="X[8] <= 2.101\nentropy = 0.449\nsamples = 32\nvalue = [29, 3]"] ;
166 -> 167 ;
168 [label="entropy = 0.0\nsamples = 27\nvalue = [27, 0]"] ;
167 -> 168 ;
169 [label="X[1] <= -0.8\nentropy = 0.971\nsamples = 5\nvalue = [2, 3]"] ;
167 -> 169 ;
170 [label="entropy = 0.0\nsamples = 2\nvalue = [2, 0]"] ;
169 -> 170 ;
171 [label="entropy = 0.0\nsamples = 3\nvalue = [0, 3]"] ;
169 -> 171 ;
172 [label="X[8] <= 1.726\nentropy = 0.764\nsamples = 18\nvalue = [4, 14]"] ;
166 -> 172 ;
173 [label="X[12] <= 0.891\nentropy = 0.985\nsamples = 7\nvalue = [4, 3]"] ;
172 -> 173 ;
174 [label="entropy = 0.0\nsamples = 3\nvalue = [3, 0]"] ;
173 -> 174 ;
175 [label="X[8] <= 1.594\nentropy = 0.811\nsamples = 4\nvalue = [1, 3]"] ;
173 -> 175 ;
176 [label="entropy = 0.0\nsamples = 1\nvalue = [1, 0]"] ;
175 -> 176 ;
177 [label="entropy = 0.0\nsamples = 3\nvalue = [0, 3]"] ;
175 -> 177 ;
178 [label="entropy = 0.0\nsamples = 11\nvalue = [0, 11]"] ;
172 -> 178 ;
179 [label="X[12] <= -1.336\nentropy = 0.488\nsamples = 66\nvalue = [7, 59]"] ;
165 -> 179 ;
180 [label="X[7] <= 1.451\nentropy = 0.592\nsamples = 7\nvalue = [6, 1]"] ;
179 -> 180 ;
181 [label="entropy = 0.0\nsamples = 6\nvalue = [6, 0]"] ;
180 -> 181 ;
182 [label="entropy = 0.0\nsamples = 1\nvalue = [0, 1]"] ;
180 -> 182 ;
183 [label="X[6] <= 1.483\nentropy = 0.124\nsamples = 59\nvalue = [1, 58]"] ;
179 -> 183 ;
184 [label="X[0] <= 39.5\nentropy = 0.722\nsamples = 5\nvalue = [1, 4]"] ;
183 -> 184 ;
185 [label="entropy = 0.0\nsamples = 4\nvalue = [0, 4]"] ;
184 -> 185 ;
186 [label="entropy = 0.0\nsamples = 1\nvalue = [1, 0]"] ;
184 -> 186 ;
187 [label="entropy = 0.0\nsamples = 54\nvalue = [0, 54]"] ;
183 -> 187 ;
188 [label="X[1] <= 0.133\nentropy = 0.562\nsamples = 38\nvalue = [33, 5]"] ;
164 -> 188 ;
189 [label="entropy = 0.0\nsamples = 21\nvalue = [21, 0]"] ;
188 -> 189 ;
190 [label="X[3] <= 0.5\nentropy = 0.874\nsamples = 17\nvalue = [12, 5]"] ;
188 -> 190 ;
191 [label="X[15] <= -0.964\nentropy = 0.592\nsamples = 14\nvalue = [12, 2]"] ;
190 -> 191 ;
192 [label="entropy = 0.0\nsamples = 2\nvalue = [0, 2]"] ;
191 -> 192 ;
193 [label="entropy = 0.0\nsamples = 12\nvalue = [12, 0]"] ;
191 -> 193 ;
194 [label="entropy = 0.0\nsamples = 3\nvalue = [0, 3]"] ;
190 -> 194 ;
}